#ifndef __AP_MOTORS_POLICY_DEF_H__
#define __AP_MOTORS_POLICY_DEF_H__

const int STATE_SIZE = 9;
const int OB_SPACE_SIZE = 13;
const int AC_SPACE_SIZE = 5;
const int NUM_HIDDEN_LAYER = 2;
const int HIDDEN_LAYER_SIZE = 64;
const float FINAL_BIAS = 3.500000;

const float W0[OB_SPACE_SIZE][HIDDEN_LAYER_SIZE] = {
{-1.843124, 0.555943, 0.341996, -0.661431, -1.189452, -0.405804, -0.234569, -1.336985, 1.046029, -1.200571, 1.291300, 0.317824, 1.396381, -0.245221, 0.561756, 0.062519, 1.316630, 0.151815, -1.016603, -0.124126, -0.600754, -0.390698, 0.325012, -0.421494, 0.469205, 0.122464, -0.886974, 0.833308, 0.758872, -0.845229, -1.532368, 1.130256, -0.130708, -0.006568, 0.600174, 0.098282, -0.476205, 1.794342, -0.275288, 1.221985, -0.239598, -0.667085, 1.357859, -0.080960, 0.471805, 0.202716, 0.940120, -0.419714, -0.968045, 0.049221, -0.881509, -0.001129, 0.981460, 2.022261, -0.068413, 0.518664, 0.470596, 0.046157, -1.356225, 1.506841, 0.277382, -1.219045, -0.211008, -0.295343, },
{-0.423418, 0.257050, -0.714518, -0.633090, -0.601701, -0.982729, -0.450055, -0.477730, -1.194989, 1.367434, 0.942191, 0.043711, -0.272170, 0.310810, 0.808694, 0.155967, 0.199219, -0.197390, -0.219540, -0.422267, -1.438079, 0.529888, 0.970872, 0.180327, 0.735325, 1.495098, 0.774803, -0.715349, -0.735188, -0.087258, -0.129860, 0.140834, -1.065245, 0.725838, -0.584933, -0.435766, 0.254280, 0.202073, 0.023449, 0.951830, 0.678272, 0.550201, 1.448125, -1.486953, 0.293676, 0.463438, -0.355670, 0.465060, -0.011869, -0.059050, -0.028379, 1.227879, -1.044843, -0.141972, -0.313356, -0.923515, 0.340233, 1.329047, 0.586841, -0.350743, -0.144297, 0.292622, 0.545334, -1.197518, },
{-0.960043, 0.221778, -0.735447, -1.366468, -0.699509, 0.563349, -0.938128, 0.562347, -0.029789, 0.351607, 0.177769, -0.680999, -0.053114, 0.536832, 0.025089, 0.247997, 0.415293, -0.433627, -0.229791, 0.328103, -0.383215, 0.023572, 0.491961, 1.180180, 0.256592, -0.980501, 0.185057, 0.189422, -0.133274, -0.639214, -0.543797, -0.331689, -0.109149, 1.019122, 1.034255, -0.502050, 0.310615, 0.268617, -0.211720, -0.345227, 0.031950, 0.336442, -0.152439, 0.050538, 0.046970, 0.473130, -0.870847, 0.105993, 0.877573, 0.075268, 0.139632, 0.235014, -0.538574, 0.333625, 0.457606, -1.055614, -0.211417, -0.236535, 1.178145, 0.956305, 1.059921, 0.941437, -0.101562, -0.357304, },
{-0.156026, 0.154914, -0.492513, 0.284027, 0.422840, 1.014718, -0.247158, 0.617862, -0.529716, -0.035417, 0.732767, -1.286890, -1.552755, 1.894759, -0.265382, -1.136351, 0.449283, -1.077293, 0.152262, -0.557492, -0.116924, 0.041823, 0.206510, -0.658561, 1.800591, 0.580596, -0.958139, 0.381556, -0.125659, 1.244434, -0.954592, -0.545042, -0.283693, -0.890687, -0.697744, 0.078340, 0.418478, 1.056561, -0.064960, 0.397734, -0.236386, -0.328275, -0.507254, -0.476356, 0.094402, -0.490280, 0.239125, 0.697698, 0.232465, 0.705377, -0.210547, 1.684939, -0.997532, 0.432435, 0.363065, 0.796613, -0.591187, -0.751406, -0.272900, 0.459884, 0.297409, -0.532107, -0.731516, 0.483597, },
{-0.175377, 0.781371, -0.915862, -0.464508, 0.569987, -0.163691, 0.169075, 0.332983, -0.152387, -0.327720, -0.384810, -0.184697, 0.418108, 0.181876, -0.201138, 1.125624, -0.065137, 1.722768, -1.152878, -1.242186, 0.756629, 1.339393, -0.955002, 0.480580, 0.552893, -0.057639, 0.476253, -0.652741, 0.055808, -0.333935, 0.386767, 0.697375, -0.200736, 0.218389, -0.532609, -0.876095, 0.621745, -0.368233, -0.537580, 0.371400, 1.762522, 0.960467, -0.348817, 0.157451, 1.055391, -1.310612, 0.678741, -0.062236, 0.404932, 1.571672, 1.273568, 0.235227, -0.202521, 0.659953, -0.489077, -0.000511, -0.266291, 0.752334, -0.438942, 0.839614, -0.305842, 0.532169, 0.085404, -0.363730, },
{-0.204045, -1.253996, 0.291180, -1.145431, -0.464658, -0.030628, -1.071358, 0.512993, 0.059344, 0.933337, -0.353068, -0.553334, 0.358627, 0.375628, 0.909489, -0.396732, -0.147425, 0.656220, -0.901423, 0.482549, -0.699805, -0.183132, -0.671897, -0.428808, 0.392912, 0.849688, 0.204342, -0.322139, 0.778247, -0.775158, 0.082536, 0.081705, 0.528891, 0.208437, 0.226802, 0.505072, 1.319511, -0.083469, -0.816363, -0.141505, -0.403733, 0.243252, 0.534661, -0.394970, 0.392941, 0.743696, -0.763046, 0.089063, -0.853406, 0.361364, -0.311770, -0.874956, 0.136940, 0.533332, -0.066018, -0.520480, 0.263041, -0.560952, 0.741586, 0.272694, -0.846476, 0.523601, -1.173664, -0.000296, },
{-0.558020, 0.858335, -0.251035, -0.513261, -0.764294, -0.312928, 0.651550, 0.682569, -0.561261, -0.225118, -0.208444, 0.772710, 0.059959, -0.140354, 0.752094, 0.468763, 0.377424, 0.350336, -0.016236, 1.361468, 0.535103, -0.196308, 0.515476, 0.392075, -0.033443, 0.293874, -0.223220, -0.983569, -0.197515, 0.826372, -0.490697, 0.000477, -1.129352, -0.299417, -0.640551, -0.002821, 1.071773, 0.289044, 0.178271, 0.517770, 0.512757, -1.857366, 0.784839, -0.929252, 0.830121, 0.559070, -0.437816, -0.642679, 0.112543, 0.279056, 0.754851, 0.273841, 0.050110, 0.740622, -0.284218, -0.855183, 0.178947, 0.222842, 0.393868, -0.064561, 0.240099, 0.015457, 0.064870, -0.446543, },
{-0.245632, -0.422536, -0.838091, -0.079528, -0.136365, 1.279547, 0.977896, -0.365862, 0.082529, -0.391609, -0.164430, 0.481391, 0.634920, 0.223609, -0.055301, 0.426869, -0.412735, -0.168304, 0.627669, -0.270647, 0.381259, 0.215466, -0.530504, -0.492863, 0.561129, 0.323140, 0.412298, -0.808725, -0.593467, -0.255772, 0.482469, 0.347195, -0.109918, -0.879146, -0.351388, -0.607628, -0.456035, -0.784396, 0.121275, -0.200736, 0.433948, 0.104711, -0.001997, -0.125540, -0.277084, 0.480648, 0.418040, 1.044579, 0.707112, 0.287221, 0.082530, -0.448190, -0.485118, -0.245662, -1.041229, -0.293878, 0.024475, 0.456868, 0.776927, 0.427298, -0.759013, 0.307080, -0.626158, 0.513712, },
{0.514097, 0.283126, 0.077487, -0.192506, 0.499650, 0.649395, -0.260433, -0.660686, -0.815384, -0.728459, 0.014165, -0.683908, -0.231299, -0.312937, -0.834768, -0.023555, 0.471283, -0.079670, 0.171049, -0.597788, -0.521946, -0.194457, -0.664471, 0.284122, 0.301622, 0.525343, -0.255986, 0.641352, 0.460666, -0.754279, 0.350760, 0.124457, 1.381914, -0.862821, -1.433998, 0.359211, -0.066241, -0.025091, 0.103253, -0.079537, 0.729331, -0.151856, 0.119253, -0.473815, 1.384529, 0.398609, -0.823273, -0.442829, -0.667009, 0.682354, -0.973680, 0.380698, -0.946709, 0.396812, 0.343736, -0.498018, 0.922803, 0.615507, -0.215510, -0.099948, -0.032475, 0.332328, 0.167621, 0.824393, },
{0.440965, -0.503312, 0.511341, 0.041185, 0.237473, -0.554468, 0.618035, -0.695596, -0.123725, -0.895122, 0.560967, 0.156202, -0.610577, -0.385426, 0.290252, 0.255359, 0.339886, -0.209016, -0.666532, -0.079903, -0.321110, 0.256596, 0.258716, 0.305692, -0.226629, -0.391432, -0.239947, -0.342598, 0.675540, 0.538775, 0.239339, 1.396425, -0.973721, -0.049926, 0.045489, 0.652827, 0.498952, -0.055118, -0.035725, 0.384661, -0.187951, -0.142561, 0.257233, 0.248299, 0.295367, -0.441204, -0.356589, 0.756086, -0.526121, 0.038228, 0.191230, -0.163248, -0.309908, 0.038580, -0.168635, -0.546403, 1.216432, -0.240244, 0.052044, -0.678702, 0.920044, 1.319192, -0.031013, -0.019309, },
{-0.348837, -0.233348, -0.021549, -0.424359, 0.010579, -0.335312, -0.169638, -0.177517, -0.484342, 0.605294, -0.297806, -0.416440, 0.592261, -0.310469, -0.755399, -0.187091, -0.331569, -0.298946, 0.092962, 0.337227, -0.270719, 0.721059, -0.344216, 0.175520, -0.237371, -0.187013, -0.660225, 0.114137, -0.550906, -0.369682, 0.106007, 0.123797, 0.112818, 0.299088, 0.654948, -0.973150, -0.267279, 0.499362, -0.525176, 0.321651, -0.427284, 0.668777, -0.174077, -0.434649, 0.024283, -0.076760, -0.536466, -0.858965, -0.231102, -0.026803, 0.282973, 0.247220, -0.428700, 0.256830, -0.115029, -0.638486, 0.055982, -0.230725, 0.387515, 0.327233, -0.382381, 0.030899, -0.531767, 1.052161, },
{-0.068356, 0.903846, -0.467466, 0.685299, 0.467501, -0.284665, -0.762066, -0.936758, 0.423492, -0.726196, 0.438947, 0.490568, 0.381054, -1.195637, -0.873856, -1.163648, 0.830456, -0.489725, -0.550782, 0.137334, -0.078739, -0.017859, -0.472471, 0.753439, 0.059186, -0.168398, 0.953981, 0.463641, 1.141967, -0.322665, -0.070477, -0.667653, 0.227483, -0.520693, 0.120342, 0.638113, 0.317701, 0.081660, 0.251467, 0.538939, 0.038864, -0.387291, 0.127331, -0.969922, 0.716821, 0.107810, -1.203327, 0.022816, -0.948207, 0.774338, -1.239050, -0.433560, -0.437994, -0.180877, 0.756721, -0.803950, 1.437291, 0.233232, 0.208241, 0.315744, 0.215762, 0.138591, 0.730596, -0.112968, },
{0.092906, 0.009693, -0.438343, 0.294754, 0.282764, -0.105375, -0.266677, -0.303104, 0.287331, 0.003130, 0.137856, 0.013091, -0.177793, 0.023309, -0.350217, 0.870869, -0.313380, -0.138274, -0.137539, -0.332012, 0.335463, 0.365921, -0.482301, 0.047819, -0.268572, 0.717681, 0.236503, 0.458291, -0.545426, -0.184015, 0.034374, 0.810896, -0.245533, 0.179351, -0.065636, -0.558294, 0.038415, 0.602253, -0.002408, 0.611402, 0.283226, 0.458516, -0.226159, 0.066052, 0.262555, 0.732475, -0.345427, -0.270377, 0.178918, 0.092294, -0.384520, -0.078492, 0.675188, -0.251091, -0.990053, 0.120159, 0.284555, 0.753184, -0.432900, 0.276199, -0.593338, 0.302122, 0.330879, 0.516316, },
};

const float W_hidden[NUM_HIDDEN_LAYER - 1][HIDDEN_LAYER_SIZE][HIDDEN_LAYER_SIZE] = {
{
{0.033024, -0.571760, -0.301929, 0.190267, 0.538409, -0.319744, -0.136468, 0.024215, 0.488320, -1.065022, 0.423871, 0.293909, 0.417774, -0.699407, 0.052779, 0.032404, 0.261855, -0.259192, -0.874385, 0.578421, -0.124039, 0.069569, 0.479477, 0.598176, 0.552933, 0.205444, -0.775997, -0.297016, 0.349674, 0.365388, 0.780460, 0.404342, -0.552506, 0.826370, 0.569332, -0.325058, 0.413339, 0.630481, -0.458003, -0.317146, 0.456068, 0.375665, 0.212609, 0.130229, 0.827323, -0.275202, 0.251734, -0.098701, 0.832800, -0.160163, 0.478390, -0.014852, -0.634656, -0.353835, -0.214272, -0.641582, -0.202968, 0.348173, -0.164186, 0.333171, 0.314398, 0.653586, 0.597696, -1.094775, },
{-0.123687, -0.167460, 0.439266, 0.083734, -0.000352, -0.215846, 0.227384, -0.303376, -0.495508, 0.233920, 0.231044, -0.335332, -0.101434, -0.646788, -0.730217, -0.594263, -0.883079, 0.246352, 0.338544, 0.190105, 0.697936, 0.622395, -0.421598, -0.530266, 0.290663, -0.646851, 0.097034, -0.272059, 0.816292, -0.216717, -0.673236, -0.158322, 0.409746, -0.805556, -0.160598, 0.194070, 1.082722, 0.019790, -0.636394, 0.098799, -0.537277, 0.024292, -0.097730, -0.807230, 0.296242, 0.335409, 0.217108, -0.760879, -0.185480, -0.194295, 0.363303, 0.184953, 0.184096, 0.330643, -0.389957, 0.359784, 0.802696, -0.177871, 0.077653, -0.299038, -0.433384, 0.190502, -0.047306, -0.265122, },
{0.063682, -0.333197, -0.604712, -0.540290, -0.248981, -0.489282, -0.362883, 0.443710, -0.353550, -0.041175, -1.290434, 0.814553, 0.027640, -0.774800, 0.689493, 0.077390, 0.231353, -0.386127, -0.289296, -0.025367, -0.123608, -0.278365, -0.663830, -0.121010, -0.264436, -0.278180, -0.030600, -0.066897, -0.120025, -0.018236, 0.077493, 0.722665, -0.092755, 0.215809, 0.724529, -0.307808, 0.007386, 0.206944, -0.282475, 0.725109, 0.462015, 1.048318, -0.279543, 0.313542, 0.092210, 0.179286, 0.253547, 0.313457, -0.432756, -0.062988, 0.445463, 0.883911, 0.423842, -0.061501, -0.188590, 0.068429, 0.425573, -0.344207, -0.246137, 0.200701, 0.136768, -0.149669, 0.840633, 0.218659, },
{0.107180, 0.308868, -1.255598, 0.053362, 0.657321, -0.542992, -0.654729, 0.248145, 0.918735, -0.831699, 0.565338, 0.234055, -0.265533, 0.212545, -0.236744, -0.066863, 0.452409, -0.114868, -0.467651, -0.185403, -0.443425, -0.930491, 0.256866, 0.479209, -0.633622, -0.564045, -0.574784, -0.388377, 0.146938, -0.151226, 0.217332, 0.126586, 0.092005, 0.235867, 0.402860, 0.205534, 0.355365, -0.177585, -0.399615, -0.519721, -0.079948, 0.231461, -0.221144, 0.280493, 1.376702, -0.103667, -0.528506, 0.331440, 0.210157, 0.054369, 0.145808, -0.177465, -0.468577, -0.834542, -0.089462, -0.165303, 0.846151, 0.753355, -0.505687, 0.139608, -1.020397, 1.288453, 0.845205, -0.347562, },
{-0.126656, 0.675067, -0.154507, 0.369020, 0.645735, -0.154272, -0.092759, -0.517718, 0.258057, -0.247601, 1.320913, -0.695682, 0.136726, 0.182441, -0.015277, -0.159301, -0.136958, 0.462241, -0.769760, -0.532716, 0.571666, 0.391826, -0.733650, -0.047659, 0.212996, 0.272061, -0.600204, -0.318823, 0.398253, -0.418519, 0.073098, -0.291807, 0.050621, 0.315231, 0.639549, -0.593014, -0.040778, 0.001384, -0.204208, -0.763694, -0.062064, -0.752816, 0.461114, 0.262063, 0.393767, -0.201203, 0.148221, 0.113817, 0.179162, -0.012004, 0.186575, -0.702178, -0.310256, -0.356501, -0.860129, -0.332629, -0.268223, 0.654405, 0.613284, -0.293917, 0.193335, 0.166962, 0.446940, -0.622714, },
{0.276707, 0.891061, -0.170768, 0.737377, 0.571513, -0.699713, -0.474907, -1.046444, 0.287234, -0.079807, 0.336427, 0.004100, 0.892984, 0.199032, 0.168410, -0.029592, 0.332498, 0.076713, 0.448687, -0.615415, 0.045299, -0.290401, -0.122257, 0.804195, -0.432938, 0.232808, -0.346395, -0.434095, 0.220376, -0.461489, 0.626800, -1.350516, -0.047530, 0.146161, -0.862463, -0.821643, 0.022869, -0.288192, -0.010744, -0.313191, -0.493215, -0.522684, 0.279305, 0.593742, 0.490012, -0.139985, -0.891010, 0.539815, 0.005924, -0.041225, -0.601234, 0.470365, -0.658788, -0.550228, 0.102110, 0.082850, -0.452005, 0.461743, 0.302391, 0.146490, -0.413235, 0.006593, -0.586548, -0.440067, },
{-0.140677, -0.154876, 0.052573, -0.980917, 0.177701, 0.072483, -0.147248, 0.563043, -0.232094, 0.487730, 0.160615, 0.172273, 0.325552, 0.086342, -0.734889, -0.162775, -0.192981, 0.414402, -0.623770, -0.307772, 0.665088, 0.147798, 0.601097, -0.011684, 0.436391, 0.325639, -0.093654, 0.073583, 0.112221, 0.364116, 0.069070, 0.162774, -0.490662, -0.193334, 0.158174, 0.113803, 0.735095, -0.734525, -0.157987, 0.487864, 0.942915, 0.205845, -0.384582, -0.269383, 0.344170, 0.617910, -0.294132, -0.189670, 0.468155, -0.475647, -0.569359, -0.106245, 0.980701, -1.396344, 0.236280, 0.217883, 1.279213, -0.201166, 0.595593, -0.341047, 0.441823, 0.656731, 0.248644, 0.131050, },
{0.079336, 0.269224, 0.142857, 0.834030, 0.143544, 0.616089, 0.337839, -1.544644, -0.653639, -0.209047, 0.108241, 0.263700, 0.182272, -0.436249, -0.087758, 0.048876, 0.404966, 0.218073, 0.842825, -0.491919, 0.242715, 0.360484, -0.470062, 0.161075, -0.085040, 0.686146, -0.909758, -0.377261, 0.308111, -0.043645, -0.458494, -0.311880, 0.556071, -0.118748, -0.543886, 0.224225, 0.051014, -0.259670, 1.112552, 0.231034, -0.157268, -0.124473, 0.052342, 0.212275, -0.740883, 0.047064, -0.363716, 0.475612, -0.091171, -0.512285, -0.195338, 0.268163, -1.415063, 0.091771, -0.487074, -0.361392, -0.454655, 0.163493, 0.180863, 0.117193, 0.431458, -0.100726, 0.023811, 0.197210, },
{-0.285161, -0.199164, -0.522398, -0.549714, -0.644025, -0.046911, -0.138988, 0.089772, -0.335918, -0.056673, 0.320117, 0.206781, 0.427270, 0.497057, 0.298874, -0.346619, -0.090158, -0.241542, 0.225158, -0.312058, -0.009407, 0.139579, 0.549605, 0.748238, -0.573416, -0.564447, 0.642700, 0.656051, 0.538932, 0.677348, 0.570270, -0.187176, -0.558534, -0.504803, 0.126529, -0.294602, 0.369055, 0.093377, -0.180804, -0.002398, 0.081011, 0.165475, 0.069091, -0.360507, 0.281320, -0.411552, 0.221880, 0.210981, 0.084330, 0.003689, 0.398843, -0.020406, 0.075328, 0.543021, -0.184889, -0.085769, 0.611135, 0.109376, -0.977823, -0.298497, 0.178101, 0.629304, -0.263352, 0.378154, },
{0.409328, 0.273007, 0.966778, 0.261559, 0.000954, 1.047985, -0.641111, -0.340420, -0.040833, 0.109063, -0.334479, -0.566949, 0.118875, -0.572351, -0.154366, 0.868366, -0.133121, -0.653392, 0.462323, 0.889649, -0.121293, -0.147576, -0.150830, 0.466701, -0.222740, 0.438085, -0.319790, 0.650189, 0.093397, 0.317273, 0.100736, 0.303406, -0.420003, 0.527823, -0.285713, -0.119030, -1.006425, 0.280433, 1.364370, 0.582544, -0.028404, 0.008481, -0.650474, 0.174393, -0.788871, -0.456358, 0.306670, 0.609411, 0.004875, -0.232070, -0.099577, 0.153078, -0.311864, 0.522262, 1.354346, -0.470207, -0.470257, 0.091305, 0.303285, -0.241281, 0.886330, -0.434554, -0.199510, 0.694043, },
{0.103755, 0.662082, -0.122008, -0.269036, 0.204405, -0.278220, 0.352691, 0.456852, -0.115975, 0.389368, -0.470485, 0.180002, -0.763826, 0.543843, 0.074326, 0.483802, 0.389202, 0.276728, -0.106117, -0.427333, -0.687714, -0.472350, -0.305845, -0.235644, 0.025173, -0.670407, -0.325900, -0.290545, -0.576321, -0.446330, 0.416007, 0.012199, 0.770691, 0.255200, 0.037477, 0.948844, -0.702027, 0.162747, 0.147694, -0.431501, -0.351042, 0.010880, 0.132300, 0.497827, -0.176366, 0.387140, -0.057933, -0.232671, -0.236043, 0.663373, -0.602116, 0.200564, 0.451667, 0.084416, 0.170268, 0.785564, 0.290268, -0.037690, 0.476111, 0.134955, -0.929895, -0.439444, -0.177604, 0.172094, },
{-0.233925, -0.686211, 0.175307, -0.849387, -0.173442, -0.468143, 0.447740, 0.210016, -0.062608, -0.108012, -0.176641, 0.348410, 0.226082, -0.379164, -0.242052, -0.135799, -0.327048, -0.546537, 0.160169, 0.279246, 0.237384, -0.216020, 0.555068, -0.244563, -0.208771, 0.106454, 0.544662, 0.653933, -0.298191, 0.098802, -0.096953, 0.429301, 0.214352, 0.428900, 0.902766, 0.229532, 0.777083, -0.021434, 0.396961, 0.362899, 0.493962, 0.793039, -0.546928, -0.688179, 0.176904, 0.207630, 0.145912, -0.939338, -0.394572, -0.822562, 0.134008, -0.570410, 0.323300, -0.753673, -0.166612, -0.290631, 1.164374, -0.416934, 0.001507, -0.284728, -0.168100, 0.245918, 0.522772, -0.144413, },
{-0.502971, -0.684543, 0.340693, -0.612618, -0.712923, 0.284863, 0.113477, -0.061030, -0.301656, 0.028597, -0.527804, 0.008433, 0.347727, 0.118537, 0.742243, -1.241937, -0.607994, 0.227201, 0.103708, 0.167390, 0.749927, 0.384748, 0.459839, -0.712942, 0.214186, 0.485891, 0.792088, 0.375685, 0.042995, -0.233538, 0.199933, -0.303000, -0.185583, -0.961501, 0.212152, -0.773086, -0.060674, 0.014475, -0.204040, 0.235700, -0.186351, -0.726977, -0.366548, -1.004361, -0.338894, -0.743357, 0.415916, -0.630812, 0.300390, -0.087542, 0.412312, 0.230954, 0.060936, -0.323534, 0.357239, 0.192105, 0.291477, 0.059794, -0.245811, -0.159091, 0.457817, -0.070072, -0.860280, 0.644677, },
{0.605726, 1.194055, 0.237100, 1.880660, 0.356152, 0.460296, 0.055180, -0.128968, -0.194067, 0.569215, -0.090029, 0.249007, -0.091054, 0.249769, -0.116239, 0.424087, 0.904840, 0.696721, 0.230777, -0.454728, -0.188085, 0.295906, -0.403326, -0.105713, 0.348735, 0.190643, -0.239240, -0.311136, -0.107825, -0.138804, -0.599056, -0.244583, 0.564596, 0.136514, -0.287735, -0.024250, -0.357439, 0.170665, 0.452126, 0.036107, -0.569475, -0.619654, 0.237387, -0.250961, -0.521723, 0.813679, 0.181079, 0.495110, 0.156395, 0.055646, -0.450818, -0.345986, -0.984154, 0.160175, 0.287079, 0.285637, -0.921746, 0.493932, 0.549642, -0.036169, -0.580532, -0.266684, -0.492640, 0.073929, },
{-0.396509, -0.525500, -0.310165, 0.112963, -0.886476, 0.383748, 0.362085, 0.229105, -0.849011, 0.560750, -0.810672, -0.058091, -0.607434, 0.122831, 0.458877, -0.212975, -0.283443, 0.235944, 0.520229, 0.209712, -0.135198, 0.395149, 0.933613, -0.519553, -0.157491, 0.421011, 0.372006, 0.307298, -0.511536, 0.428053, -0.545382, 0.417864, 0.071578, 0.014343, -0.034079, -0.048676, -0.174947, -0.016380, 0.711981, 1.281903, 0.358806, 0.367471, 0.370369, -0.700536, -0.776013, 0.376398, 0.551484, 0.032877, -0.238897, -0.284130, -0.142820, -0.326926, 0.067809, 0.186063, 0.158263, -0.255254, -0.314246, -0.251395, -0.018123, 0.011301, 0.462457, -0.606863, -0.105250, 0.379540, },
{-1.062897, -0.500342, -0.209179, -0.032837, -0.163455, 0.489771, 0.190084, 0.219763, -1.153925, -0.108897, 0.101809, -0.121343, 0.013800, 0.218396, 0.023385, -0.965586, -0.572233, 0.116848, -0.552089, -0.514750, 0.476396, 0.396334, 0.538438, -0.293813, 1.307462, 0.001821, 0.179478, 0.186966, 0.290447, 0.486725, -0.207616, 0.225484, -0.249609, -0.189553, 0.228472, -0.256175, 0.721931, -0.115759, 0.111451, -0.369357, 0.413039, 0.227061, -0.141512, -1.600037, 0.363435, -0.259728, 1.158736, -0.167208, 0.564692, -0.887057, 0.910838, -0.308625, 0.173288, 0.456477, -0.064809, -0.442818, 0.376260, 0.321713, -0.157187, -0.559765, 0.070895, 0.304716, -0.636045, -0.027406, },
{0.454636, 0.289616, 0.194927, 0.545709, 0.065362, -0.882466, 0.205567, -0.387271, 0.273515, 0.600016, -0.456887, -0.170568, -0.773440, 0.288941, -0.029778, 0.183803, 0.245610, 0.140369, 0.438781, -0.262596, -0.305845, -0.042105, -0.084298, -0.433247, 0.081782, -0.386816, 0.069059, -0.173200, -0.154582, -0.304225, 0.134624, -0.219066, 1.111816, -0.337853, -0.767354, 0.805397, -0.375047, 0.564243, -0.435110, -0.164121, -0.758802, 0.118862, 0.150513, 0.654182, -0.075659, 0.777717, -0.154177, -0.455481, -0.281043, 0.759776, -0.171540, 0.266779, 0.914973, 0.432004, -0.117554, 0.930960, -0.120934, -0.187195, -0.204658, 0.181833, -0.644192, -0.712186, -0.072954, 0.038199, },
{-0.324870, -0.990775, -0.224920, 0.342291, -0.681536, 0.344408, 0.247513, -0.040532, -0.686040, 0.206986, -0.300700, 0.006739, 0.526931, -0.226528, -0.034719, -1.136577, -0.923875, 0.178335, -0.256412, 0.341103, 0.339637, 0.215580, 1.061193, -0.193558, 0.862069, 0.353352, 0.185904, 0.567993, -0.073292, 0.372163, -0.243553, 0.073128, -0.247953, -0.603464, 0.149286, 0.011280, 0.907602, -0.026157, 0.245508, 0.547176, 0.251710, -0.023833, 0.029478, -1.386614, -0.289497, -0.263194, 1.471163, 0.297903, 0.271495, -0.783139, 0.508776, -0.018942, 0.263521, 0.228297, -0.169629, -0.280961, -0.425153, -0.026867, -0.577937, -0.261085, 0.393169, -0.525731, -0.631387, -0.521971, },
{0.232667, 0.405317, 0.162526, -0.064390, 0.909326, -0.212968, -0.238014, 0.223984, 0.127959, -0.159411, 0.143115, 0.412703, 0.661474, -0.542638, -0.426782, 0.724510, 0.002166, -0.237483, -0.288099, -0.356053, 0.007378, -0.520776, -0.222519, 0.770878, -0.097928, -0.095613, -0.232429, -0.437890, 0.123321, -0.588436, -0.288218, -0.273021, -0.158148, 0.326952, -0.599610, 0.186338, 0.280664, -0.682327, -0.242582, -0.313029, 0.245721, 0.383640, -0.576473, 0.086696, 0.169825, 0.172747, -0.967660, 0.215216, 0.656478, -0.313385, -1.053431, 0.551910, -0.255513, -0.489780, 0.399381, -0.117630, 0.363746, 0.372321, 0.281368, 0.218078, -0.515557, 0.302357, 0.571071, 0.265951, },
{0.866044, -0.642686, 0.448891, -0.411313, -0.176595, -0.043145, -0.522179, -0.183961, 0.135147, -0.486460, -0.772579, 1.108433, 0.302061, -0.570247, -0.430904, -0.104928, 0.081409, -1.211959, 0.319170, 0.155926, -0.196616, -0.126558, -0.190858, -0.210181, -1.118497, 0.377738, 0.463468, -0.070194, -1.073767, -0.229310, -0.370896, 0.082039, -0.129748, 0.078780, 0.118004, 0.354686, 0.124536, -0.108219, 0.546629, 0.753825, 0.465649, 0.527301, -0.800551, 0.616904, -0.310495, 0.105484, -0.549345, -0.350741, -0.646019, -0.525247, -0.228466, 0.464477, -0.427583, 0.123393, 0.160570, 0.115107, -0.261384, -0.747310, -0.623030, 0.760565, -0.235523, 0.044573, -0.181982, 0.538239, },
{-0.081869, -0.042800, -0.573297, 0.002922, 0.829440, -0.441813, -0.117058, -1.037450, -0.772524, -0.236679, 0.722578, 0.572010, 0.792711, 0.053054, -0.470859, -1.323379, -0.070641, 0.202011, 0.008997, -0.465000, 1.337681, 0.205592, 0.135410, -0.127163, 0.495401, 0.345752, -0.152581, -0.030263, 0.160171, 0.019937, -0.017242, -0.829523, -0.059000, -0.850179, 0.204082, -0.341105, 1.293068, -0.710226, -0.228444, 0.108921, -0.000142, -0.336477, 0.131251, -0.171624, 0.385940, 0.127374, -0.159508, 0.050260, 0.171313, -0.592280, -0.336271, -0.177896, -0.332119, -0.663835, -0.497756, -0.630307, 0.785188, 0.509950, -0.343644, -0.702025, 0.032446, 0.540024, -0.084770, -0.312565, },
{-0.575351, 0.433306, -0.096335, 0.151585, -0.243362, 0.682974, 0.410502, 0.273000, 0.023585, 0.189327, 0.261251, -1.293954, -0.442219, 0.406954, -0.031071, 0.055148, -0.193017, 0.970663, -0.471076, 0.402524, 0.749496, 0.541429, 0.218043, -0.217371, 1.307584, -0.591826, -0.497527, -0.460453, 1.007485, 0.754093, 0.793287, -0.144782, -0.685700, -0.444080, 0.139219, 0.191946, -0.171240, -0.099031, -0.323240, -0.239558, 0.460468, -0.446387, 0.400138, -0.104050, 0.150497, -0.491571, 0.063044, 0.160710, 1.570144, -0.317275, 0.337147, -0.612563, 0.390976, 0.068787, 0.771396, -0.162862, 0.192098, 0.292718, 0.067043, -0.112269, -0.043727, 0.626158, -0.510553, 0.106498, },
{0.569998, 0.079388, 0.535279, 0.084249, -0.114966, -0.288225, -0.229681, 0.053868, -0.113892, 0.261071, -0.065658, 0.478632, 0.237752, -0.589086, 0.071009, 0.617608, -0.316161, -0.196321, 0.011509, -0.395467, -0.293753, -0.645821, -0.102749, -0.231527, -0.461971, 0.169141, -0.083151, 0.102902, -0.853866, -0.109036, -1.238582, 0.132010, 0.289087, -0.183368, 0.018351, 0.691833, -0.090306, 0.019505, 0.059031, 0.397929, 0.011659, 0.364806, -0.134818, 0.288693, -0.276250, 0.526820, -0.608529, 0.145004, -0.454114, -0.648617, -0.288662, 0.388007, 0.035052, 0.133999, -0.303429, 0.061463, -0.181534, -0.844048, 0.724354, -0.004461, 0.422531, -0.487031, 0.652699, -0.274214, },
{-0.626928, -0.188108, 0.898244, -0.720529, 0.340247, 0.090293, 0.296937, -0.169697, -0.209210, -0.252787, 0.415595, -0.693292, 0.422846, -0.469006, -0.596802, -0.307125, -0.615935, -0.088180, -0.173532, 0.375504, 0.928584, -0.043608, -0.207679, -0.803057, -0.029553, 0.196452, -0.051179, -0.381744, 0.175539, 0.119343, -0.106777, 0.099654, 0.467872, -0.734289, 0.010773, 0.185104, 0.377589, 0.556367, -0.338592, 0.143111, -0.208426, 0.331286, -0.032208, -0.347381, -0.020795, 0.012408, 0.670239, -0.885451, 0.643015, -0.153049, 0.005574, -0.026029, 0.429884, 0.681767, -0.288835, -0.071402, 0.449344, -0.682130, 0.005579, 0.251632, 0.365909, -0.273305, -0.137233, -0.058172, },
{0.566596, 1.158710, 0.202413, 0.863289, 0.053704, 0.526409, 0.347214, -0.133281, -0.088987, -0.115965, 0.339005, -0.184513, -0.740898, 0.282631, 0.169631, 0.532287, -0.090838, 1.174197, 0.255677, 0.195076, -0.144866, 0.275240, -0.133772, -0.469463, -0.027711, 0.257050, 0.358131, -0.927586, -0.304990, -0.217234, -0.387340, 0.316042, 0.668528, -0.182529, -0.790392, 0.093334, -0.310076, 0.183415, 0.230969, 0.191427, -0.768197, -0.989141, 0.283107, 0.019656, -0.333509, 1.065461, 0.551714, -0.328358, 0.089127, 0.589263, -0.549193, -0.446115, -0.554725, -0.340597, 0.319533, 0.486493, -0.853898, -0.046840, 0.227261, 0.235905, -0.746501, -0.870625, -0.385658, -0.301917, },
{-0.106349, -0.233410, -0.462495, 0.776417, -0.346352, 0.103292, 0.815995, 0.354409, 0.538102, 0.568282, 0.588801, -0.100629, -0.425854, 0.278632, -0.036499, 0.310624, -0.227035, 0.767809, 0.072992, 0.364235, -0.867468, 0.381983, 0.372265, 0.168382, 0.444586, 0.057010, -0.117174, 0.229485, -0.289568, 0.008266, -0.447340, 0.129270, 0.192998, 0.707320, -0.039571, -0.142244, -0.297756, 0.288207, 0.712013, 0.037433, -0.144769, 0.054703, -0.262687, 0.092008, 0.019344, -0.090392, 0.208560, 0.122494, 0.441031, -0.431102, -0.387331, -1.359418, -0.407405, -0.059827, 0.608229, -0.926841, -0.609797, 0.374858, 0.074170, -0.142147, -1.020952, -0.414972, -0.192554, 0.059497, },
{-0.500589, -0.841888, 0.551169, -0.498120, -0.234808, 0.519037, 0.477304, 0.377670, 0.278906, -0.298007, -0.440822, -0.533278, 0.218863, 0.278509, -1.017143, 0.129700, -0.361787, 0.069684, -0.209384, 1.089475, -0.073901, -0.730893, 0.919192, 0.026776, -0.028448, 0.092597, -0.007498, 0.315318, -0.162955, 1.942619, 0.252792, -0.078760, -0.245298, 0.054055, 0.037467, 0.111257, 0.212284, -0.593295, 0.554529, 0.276430, 0.348898, 0.520760, -0.150378, -0.373718, 0.043755, -0.945198, 0.075067, -0.546232, 0.089977, -0.788183, -0.678498, -0.438668, 0.096452, -0.392386, 0.465470, -0.474352, 0.242171, 0.108448, -0.403019, 0.690189, 0.197460, 0.098889, 0.430052, -0.369202, },
{0.041193, 0.404391, -0.342395, 0.450346, -0.314006, -0.363403, -0.873312, -0.153279, 0.794719, 0.025036, -0.147275, 0.299482, -0.128151, 0.041441, 0.131050, 0.352480, -0.218447, -0.290653, 0.127131, -0.533984, -0.222704, -0.560494, -0.376258, 0.401247, -0.776201, -1.227560, 0.621322, 0.010515, 0.381269, 0.184699, 0.371388, -0.590405, 0.063397, 0.063687, -0.272871, 0.057404, -0.475834, 0.782885, -0.358299, -0.568659, -1.021661, -0.253331, 0.313157, 0.387467, 0.637419, -0.202175, -1.061478, 0.234026, -0.545781, 0.686392, 0.136938, 0.458622, -0.302235, 0.818903, -0.136520, 0.373776, -0.357850, 0.019890, -0.267613, -0.155177, -0.160570, -0.049555, -0.465689, -0.264812, },
{-0.107265, -0.376982, -0.202620, 0.061550, -0.414584, -0.114854, 0.418689, 0.117588, 0.615782, -0.268923, -0.474582, 0.286026, -0.166208, 0.605836, 0.385685, -0.585066, -0.108829, -0.213255, 0.436287, 0.247196, -0.419350, 0.039065, -0.015965, -0.256276, -0.567158, -0.492654, 0.397660, 0.379122, -0.066547, 0.313040, 0.863000, -0.073172, 0.119502, -0.228427, 0.609417, -0.638934, 0.227803, 0.951466, -0.300022, 0.472824, 0.507006, 0.188701, 0.740847, 0.130141, 0.084694, 0.434291, 0.257001, 0.072775, -0.205265, 0.244712, 0.452366, 0.222466, 0.109300, 0.175465, -1.018180, 0.208564, -0.023690, -0.150169, -0.826706, 0.412969, 0.427345, -0.713040, 0.046127, -0.475485, },
{0.536858, 0.355751, -0.440627, -0.028284, 0.781941, -0.163556, -0.050832, -0.264549, -0.228660, 0.181111, 0.497479, 0.517898, -0.267173, 0.154125, -0.271953, 0.373748, 0.795963, 0.035702, -0.160561, -0.261555, -0.167068, 0.085077, 0.286174, -0.074041, -0.110599, -0.129604, -0.291264, -0.955884, 0.086218, -0.110439, -0.374374, -0.040082, 0.437013, 0.004361, 0.113387, 0.871675, 0.377149, -0.727485, -0.138079, -0.568274, 0.132084, 0.184347, -0.578349, 0.190521, 0.326825, 0.985219, -0.648914, 0.539529, -0.307776, 0.297617, -0.586439, -0.315856, -0.206521, -0.153721, -0.192253, 0.334580, 0.481492, 0.213439, 0.258346, -0.386845, -0.611022, -0.009923, 0.563540, -0.072958, },
{0.216046, -0.732661, 0.312701, -0.803031, 0.323313, 0.060152, 0.176030, 0.187123, -0.524469, -1.256954, 0.064160, -0.610297, 0.726420, -0.247981, 0.123714, -0.550403, 0.125204, -0.042123, -0.471518, 0.087037, 0.154038, -0.052385, 0.519078, 0.470206, 0.049724, 0.858525, -0.171046, -0.013509, -0.052878, 0.476345, 0.344201, 0.226241, -0.984586, 0.323265, 1.217671, -0.910928, 0.449378, -0.395173, 0.155148, -0.055622, 0.716769, -0.160003, -0.303522, 0.076110, 0.207796, 0.162221, 0.113371, -0.113966, 0.608827, -0.920803, -0.021030, -0.276768, -0.588317, -1.125518, -0.268954, -0.308970, 0.395032, 0.259610, -0.241638, -0.165315, 0.595870, 1.099151, 0.366307, -0.270953, },
{-0.464937, 0.126506, 0.078375, -0.273674, -0.864268, 0.241792, -0.124133, 0.434313, -0.792218, 0.016441, 0.131014, 0.155118, -0.802569, 0.977711, 0.787816, -0.398442, 0.117708, -0.196010, -0.328688, -0.670253, -0.446986, 0.202010, -0.178924, -1.083875, 0.023365, -0.043116, 0.935858, 0.051364, -0.121791, -0.076305, -0.827869, 0.407494, 0.420919, 0.188588, 1.049181, -0.332762, 0.361767, 0.142524, -0.260225, -0.165539, -0.567761, -0.166193, -0.198562, 0.091474, -0.100988, 0.103971, 0.352975, -0.147775, -0.040048, 0.476824, 0.087155, -0.324829, 0.359095, -0.372104, -0.372332, 0.484704, 0.485469, -0.908993, 0.865382, 0.035927, 0.472696, -0.270594, 0.109448, 0.430158, },
{0.889423, -0.534555, 0.389276, 0.237173, -0.479060, -0.574719, -0.543811, -0.349571, 0.561402, -0.491818, -0.266654, 0.487770, 1.171276, -0.436423, 0.400068, -0.386509, -0.405204, -0.508589, 0.597111, 0.250805, 0.045653, 0.224923, -0.215732, 0.095883, -0.141560, -0.669563, 0.066871, 0.718845, 0.457263, -0.366116, 1.346529, -0.447935, -0.520171, -0.405950, 0.027640, -0.971150, 0.278566, 0.954012, -0.497622, 0.068745, -0.658961, -0.318847, -0.107182, 0.434748, 0.576162, -0.170022, -0.136469, -0.144289, -0.196691, 0.187105, 1.315725, 0.444290, -0.233449, -0.105722, -0.341816, 0.005432, -1.022569, 0.157574, -0.431922, 0.249911, 0.198083, 0.295653, -0.673015, -0.063915, },
{-0.471252, -0.238758, 0.361345, -0.080746, -0.381991, 0.385210, -0.305272, -0.099738, -1.120692, 0.400098, -0.595911, -0.475931, -0.020616, -0.157601, -0.313168, -0.097309, -0.216037, -0.798437, -0.524174, 0.742106, 0.171600, 0.616242, -0.169075, -0.179298, 0.332711, -0.161740, -0.166181, 1.194501, 0.162983, 0.699146, 0.119337, 0.109109, -0.234162, -0.419671, -0.229900, 0.554746, -0.218091, 0.035119, 0.339245, 0.490540, 0.572723, 0.606172, -0.004781, -0.571928, -0.356180, -0.380647, 0.875811, 0.159693, -0.128329, -0.750228, 0.451690, -0.266152, 0.294532, 0.514379, 0.702121, -0.660100, -0.364788, -0.279526, 0.473400, 0.220630, 0.738745, -0.260375, 0.280938, 0.371326, },
{0.266636, -0.543007, 0.346801, -0.665562, -0.173963, 0.049414, -0.566679, 0.042426, -0.161726, 0.112794, -0.673792, 0.459176, 0.296959, 0.141023, 0.528468, -0.290719, 0.127849, -0.577907, 0.602249, -0.376137, 0.490235, -0.585343, -0.261723, 0.377617, -0.957906, -0.298890, 0.501804, 0.393177, -0.492647, 0.295839, 0.296132, -0.370998, -0.951341, -0.790946, 0.063434, 0.355947, -0.125786, -0.076307, -0.332176, 0.170127, 0.308966, -0.087673, 0.001108, 0.000135, -0.259940, -0.632530, 0.434679, 0.297199, -0.815721, -0.611693, 1.021751, 1.056786, -0.321791, 0.421633, -0.092816, 0.383812, 0.194812, -0.201918, -0.254730, -0.019922, 0.540542, 0.002505, -0.462304, 1.021362, },
{0.277466, -0.052106, -0.510858, -0.221348, -0.134441, -0.452743, -0.254855, 0.097613, -0.277169, -0.382037, -0.559383, 0.606799, 0.179960, 0.162299, 0.137779, 0.200822, 0.695453, -0.693612, 0.091557, -0.214815, -0.464669, -0.185182, 0.022213, 0.153747, -1.096626, 0.483701, -0.013946, -0.297511, -0.540172, -0.135128, 0.397982, 0.287466, 0.805051, 0.131113, -0.307325, 0.063823, 0.246931, 0.578283, 0.196938, 0.738044, -0.065382, 0.333082, 0.240167, 0.324014, -0.033197, 0.756167, -0.205388, 0.034565, -0.599028, 0.560536, -0.177231, 0.301789, -0.667266, 0.108954, -0.955011, 0.515905, 0.236151, -0.278685, -0.533477, 0.607236, 0.230533, -0.437488, 0.745012, -0.440466, },
{-0.159471, -0.283843, -0.048804, 0.027731, -0.188733, 0.621025, 1.036464, -0.279346, -0.646913, 0.464995, 0.065797, -0.216491, -0.912295, 0.280522, 0.169440, 0.358171, -0.036981, 0.210894, 0.599533, -0.110672, 0.066668, 0.756428, 0.052390, -0.765453, 0.242050, 0.703279, 0.097012, -0.355141, -0.178422, -0.170545, -0.197271, 0.321337, 0.425741, 0.090470, -0.236973, 0.336906, -0.499146, 0.511724, 0.927796, 0.587909, -0.191898, -0.051364, 0.435663, -0.087589, -0.408802, -0.567831, 0.458790, 0.510422, -0.227631, 0.019969, 0.363957, -0.576652, -0.632657, 0.840049, -0.476217, 0.074859, -0.823161, 0.518900, -0.225035, 0.305919, -0.414761, -0.673535, 0.077756, 0.186776, },
{-0.217327, 0.310950, -0.488424, 0.459123, -0.329385, -0.351581, -0.271745, 0.532465, 0.725022, 0.913517, 0.086166, 0.025103, -1.065344, 0.390431, 0.061968, 0.147168, 0.054609, 0.274669, 0.564244, -0.607822, -0.682113, -0.028965, -0.634460, 0.058891, 0.236433, -0.970263, 1.010312, 0.211649, -0.176382, -0.212075, -0.320511, -0.386065, 0.106674, 0.184968, -0.172233, 0.584585, -1.090556, 0.423425, 0.316391, -0.707648, -0.499188, -0.161218, -0.644700, 0.640074, 0.208447, -0.162964, -1.007882, 0.254823, -0.265063, 0.656509, 0.036178, -0.206803, 0.093148, 0.771818, -0.029718, 0.135347, -0.293987, -0.246263, -0.435844, 0.208579, 0.104945, 0.059231, -0.009039, 0.041038, },
{-0.068049, 0.031663, -0.172806, 0.184054, 0.315256, 0.007613, 0.218358, 0.381339, 0.218051, 0.049812, 0.196709, 0.196100, 0.172410, -0.015228, -0.444012, 0.263514, 0.106043, 0.570654, 0.016980, -0.068069, 0.374719, -0.135847, 0.355864, 0.636937, 0.230825, -0.189329, -0.288958, 0.357438, 0.204297, 0.711041, -0.173693, 0.108063, 0.057074, 0.113306, -0.503493, 0.433961, 0.026211, -0.262779, 0.088647, -0.283024, 0.057313, 0.362207, 0.239389, -0.554218, 0.773582, 0.093401, -0.790751, 0.148757, 0.015713, -0.132484, -0.235469, -0.698590, 0.067244, -0.230089, 0.102393, -0.464105, 0.408572, 0.049182, -0.389666, 0.672118, -0.914374, 0.385053, 0.353122, -0.094970, },
{0.144420, -0.140481, 0.127816, -0.031569, 0.103222, -0.163072, 0.647453, 1.011376, 0.258177, 0.487436, 0.063399, -0.151295, -1.508060, 0.037850, 0.177547, 0.149352, -0.493446, 0.566052, -0.052830, 0.254246, -0.380242, 0.293745, -0.167210, -1.134846, 0.081144, -0.199603, 0.133228, -0.209392, -0.390347, -0.409098, -0.964903, 0.009910, 0.976987, 0.431811, -0.042030, 0.799326, 0.000046, -0.407813, -0.065736, -0.394740, -0.344117, 0.162028, -1.032590, -0.029820, 0.247685, -0.040594, 0.064704, -0.613613, 0.253630, 0.143194, -0.429809, -0.384370, 0.549872, -0.107516, 0.111900, 0.227396, 0.208199, -0.264564, 0.468563, 0.124629, -1.129322, -0.072620, 0.512699, -0.395220, },
{-1.585488, -0.283587, 0.547154, 0.044577, -0.427395, -0.023538, 0.679980, 0.584466, -0.003952, -0.200488, 0.701686, -0.838606, -0.226891, -0.185298, -0.576984, -0.094753, -0.433613, 1.040749, -0.063800, 0.327433, 0.565077, 0.397763, 0.437033, -0.470303, 1.025900, -0.314680, 0.044393, 0.136729, 0.238893, 0.255244, 0.094035, -0.581118, -0.089257, -0.868552, -0.203119, -0.234215, 0.810855, -0.355563, -0.151161, -0.729211, -0.248432, -0.241740, 0.289249, -1.090933, 0.014056, -0.640457, 0.243925, -0.664507, 0.967148, -0.312427, 0.055337, -0.395724, -0.338671, -0.251730, 0.005688, -0.224089, -0.189191, -0.087559, -0.199172, 0.006516, 0.356161, -0.375680, -0.575397, -0.215705, },
{-0.853460, 0.568209, 0.326291, 0.028554, -0.314234, 0.908925, 0.469008, 0.231338, 0.099756, 0.216628, -0.034370, -0.819465, -0.139678, -0.113901, 0.442166, 0.011518, -0.350021, -0.024094, -0.638172, 0.460169, 0.265732, 0.084130, 0.095904, 0.013784, 0.892939, -0.676472, -0.308279, 1.114483, 0.956355, 0.682571, 0.388592, 0.512236, -0.527125, -0.165142, -0.423663, 0.058896, -0.843144, 0.050316, 0.089374, -0.435161, 0.669617, -0.237149, 0.277020, -0.315962, -0.153769, -1.373424, 0.220200, -0.228645, 0.844826, -0.439032, 0.170199, -0.067680, 0.171640, 0.025311, 0.396803, 0.119646, -0.097571, 0.715680, 0.110202, 0.091235, 0.570857, 0.012818, -0.246193, -0.263919, },
{0.168139, -0.305897, 0.484572, -0.194531, -0.539766, 0.122369, 0.291770, 0.772019, 0.339033, 0.572844, -1.119551, 0.482293, -0.422642, -0.359179, -0.004113, 0.362693, -0.661547, -0.394320, 0.363782, 0.350534, -0.621170, -0.226432, 0.286296, -0.442818, -0.215244, 0.191433, 0.037968, 0.770887, -1.004900, -0.272220, -0.073636, 0.506120, 0.428282, 0.082574, -0.264691, 0.686728, 0.132277, 0.397805, 0.182946, 0.326303, -0.068228, 0.655569, -0.887002, 0.132469, -0.421772, -0.261800, -0.385404, -0.279567, -0.070805, -0.459661, -0.463180, 0.292056, 1.218383, -0.170910, 0.804208, 0.409883, -0.087985, -1.471160, 0.137675, 0.530426, 0.229957, -0.582946, 0.096673, 0.294370, },
{0.049193, -0.416604, 0.020210, -0.053465, -0.463438, 0.323745, -0.078728, -0.220290, -0.454666, 0.000154, 0.274608, -0.132132, 0.735854, 0.284013, 0.047369, -1.245534, 0.448002, -0.581365, -0.501651, -0.555828, 0.194201, -0.710308, 0.403258, 0.695177, -0.026239, -0.579507, -0.291825, 0.281856, 1.054488, 0.021347, 0.979424, -1.167439, -0.644827, -0.686943, 0.394399, -0.910473, 0.736411, -0.522356, 0.021321, -0.298292, 0.349574, 0.102029, 0.637048, -0.651643, 0.264260, -0.202561, -0.216851, 0.462500, 0.356071, -0.374651, 0.312614, 0.263753, -0.029444, 0.014420, 0.001160, -0.242440, 0.322110, 0.416147, -0.145802, -0.480431, 0.076558, 0.739523, -0.459533, -0.142198, },
{-0.471181, -0.118404, -0.042194, -0.066054, 0.001013, -0.150117, 0.897462, 0.543447, 0.259726, 0.319748, 0.413865, -0.390532, -0.699767, 0.751462, -0.246294, -0.257143, -0.846112, 0.908111, -0.017312, 0.058605, 0.041232, 1.264674, -0.156226, -0.352666, 0.815572, -0.621143, -0.066309, -0.550954, 0.008431, 0.047838, 0.166919, -0.056204, 0.803409, -0.107481, -0.330142, 0.153630, -0.075854, 0.233842, 0.120681, -0.317442, -0.649607, 0.268889, 0.054644, -0.287442, 0.420796, -0.144783, 0.148295, -0.515516, 0.546336, 0.143392, -0.258561, -0.460961, 0.672893, 0.617849, 0.101181, -0.504595, 0.058883, -0.134612, -0.539517, 0.526359, 0.144995, -0.198489, -0.539172, -0.410194, },
{-0.137837, -0.135709, 0.335745, 0.157099, 0.557429, -0.059277, 0.353704, 0.612531, 0.148097, -0.702304, -0.143080, 0.554901, 0.080110, -0.363925, -0.144437, 0.511235, -0.143168, -0.372546, -0.140935, -0.134792, -0.384622, -0.368520, 0.723158, 0.311942, -0.096312, 0.000888, 0.595847, -0.196828, -1.003260, 0.038699, -0.313840, 0.608707, 0.429237, 1.066562, -0.032989, -0.008159, 0.190253, 0.360936, 0.213449, -0.146457, 0.407758, 0.712869, -1.382385, 0.402950, -0.278127, -0.356487, -0.737691, -0.755448, -0.194716, -0.125521, -0.374592, -0.273317, -0.062690, 0.037538, -0.003068, 0.206467, -0.064775, -0.512188, -0.512182, 0.865014, 0.263676, -0.046493, 0.948058, 0.216310, },
{0.659578, 0.063999, -0.759920, 0.060735, -0.823189, -0.109156, -0.311620, -0.299868, -0.858397, 0.983421, 0.128185, 0.184306, -0.039526, 0.410270, 0.286026, -1.212438, 0.143537, 1.192328, -0.688355, -1.077347, 0.333554, 0.343428, 0.551659, 0.371996, 0.599433, -0.123582, -0.345303, 0.292923, 0.963853, -0.063506, 0.180639, -1.006618, -0.351472, -0.676913, 0.340483, -0.192223, 0.298713, -0.225404, -0.711282, 0.124740, -0.730720, -0.053964, 0.404521, -0.369081, -0.205820, 0.674139, -0.170363, 0.539682, 0.186901, -0.273487, 0.319486, -0.658003, -0.360457, -0.574841, -0.049996, 0.105082, 0.532795, 0.384128, 0.726413, -1.236809, -0.419655, -0.432459, -0.284668, 0.164388, },
{-0.167123, 0.835795, -0.310342, -0.047806, 0.214606, 0.082271, 0.437557, -0.125887, 0.375796, 0.235676, 0.107906, -0.707145, 0.193082, 0.681490, -0.428448, -0.220932, 1.055732, 0.308502, -0.126569, 0.363586, -0.342002, -0.341051, 0.786015, 0.336572, 0.157415, 0.358474, -0.653416, -0.107119, -0.118650, 0.510890, 0.056613, -0.244254, 0.299282, 0.032103, 0.014392, 0.094833, -0.369890, -0.145215, 0.470985, -0.267106, 0.507887, 0.035983, 0.855842, -0.152187, 0.333089, 0.176502, 0.802218, -0.042265, 0.131853, 0.024903, -0.968365, -0.042867, 0.018496, -0.458271, 0.103745, 0.282868, -0.142051, -0.035531, 0.260321, 0.301854, -0.290275, -0.766853, 0.031491, -0.276281, },
{-0.143190, 0.092308, -0.063452, 0.303021, 0.520811, 0.707619, -0.262048, -0.096140, -0.987905, 0.047134, 0.614655, -0.373133, 0.444299, -0.258826, -1.288721, 0.005908, 0.028424, 0.390100, -0.120844, 0.045006, 0.778758, -0.190825, 0.295412, 0.648806, 0.407570, 0.101410, -0.429140, 0.089300, 0.297488, 0.700222, -0.583523, -0.304823, -0.190077, -0.513673, -0.895734, 0.261577, 0.200872, -1.025407, 0.366513, 0.631880, 0.350486, -0.342973, 0.642774, -0.547549, 0.134796, 0.079918, 0.212750, 0.372166, 0.530016, -1.165430, -0.741735, 0.196710, -0.378524, 0.203208, 0.243979, -0.366251, 0.373781, 0.004150, 0.657327, -0.824557, -0.402787, 0.473354, 0.413928, 0.422698, },
{-0.338268, 0.418403, 0.123593, 0.423977, 0.257776, 0.021824, 0.510648, -0.450356, -0.227535, 0.509305, 0.811081, -0.662526, -0.760030, 0.990343, -0.399527, 0.274607, -0.032464, 0.945614, 0.200035, -0.187327, 0.242135, 0.240605, -0.474118, -0.511938, 0.542744, 0.206306, -0.042650, -0.693100, 0.081928, -0.368521, 0.151096, -0.319976, 0.435253, -0.286605, -0.668091, -0.508090, 0.070727, 0.220934, 0.668898, -0.215979, -0.431887, -1.010558, 0.861876, 0.427855, 0.080896, -0.115839, -0.154875, 0.072263, 0.715561, 0.345396, -0.395415, -0.316183, 0.014168, -0.229082, -0.287255, 0.819212, -0.590692, 0.201738, -0.403975, -0.257007, -0.584898, 0.155769, -0.639645, -0.550212, },
{-0.124989, 0.188774, 0.348475, -0.344370, 0.359437, 0.786728, -0.094025, -0.577789, -1.450420, -0.185225, 0.472676, 0.028896, -0.101537, -0.456447, -0.141845, -0.637708, -0.312105, 0.387328, -0.125019, -0.050395, 0.892594, 1.019607, -0.043428, -0.886018, 0.813966, 0.758543, -0.392914, -0.120614, 0.057372, -0.153597, -0.795074, -0.112809, -0.252507, -0.163096, 0.621276, -0.225547, 0.342581, -0.357318, 0.301596, 0.699766, 0.109456, 0.301784, -0.150757, -0.382707, -0.575262, 0.297379, 0.215135, 0.407542, 0.098179, -1.081084, 0.053018, 0.458431, 0.057790, -0.000346, -0.070704, -0.198982, -0.230579, -0.384817, 0.691526, -0.376747, 0.676231, -0.373497, 0.074533, 0.205003, },
{0.225257, 0.848148, -0.212302, 0.726395, 0.116629, -0.080783, -0.430182, -0.059181, 0.104421, 0.242823, 0.257333, -0.087069, -0.383373, -0.350667, -1.036228, 0.248874, -0.457093, 0.558860, -0.622360, 0.631501, 0.541843, 0.066564, 0.093774, 0.119424, 0.492662, -0.261639, -0.505101, -0.586993, 0.395636, -0.076760, -0.587034, 0.255554, 0.722325, 0.149263, -1.036887, 1.097730, -0.540847, -0.616868, -0.050043, 0.172106, 0.003350, 0.072823, -0.260673, -0.090143, -0.294056, 0.395726, -0.422800, 0.065235, 0.110240, 0.181118, -1.229733, 0.054915, 0.345765, 0.424546, 0.418849, 0.213784, 0.257706, -0.225662, 0.719316, 0.205547, -0.484968, 0.298308, -0.269972, -0.387971, },
{-0.191140, -0.410848, -0.434830, -0.659069, -0.984666, -0.375253, -0.624671, -0.374852, -0.401720, 0.135316, -0.485208, 0.427219, 0.292374, -0.011850, 0.637723, -0.231885, -0.488221, -0.563572, 0.524604, -0.692967, 0.483558, 0.363705, 0.144849, 0.099773, -0.400854, -0.376591, 0.886252, 0.322852, -0.051147, -0.439656, 0.131526, -0.301786, -0.597638, 0.022188, 0.814386, -0.458327, 0.078130, 0.548559, -0.343831, -0.071741, -0.507247, 0.444138, -0.218590, -0.185207, 0.160756, -0.349872, -0.158448, -0.026311, -0.716522, 0.181235, 0.988919, -0.336744, -0.436845, 0.056290, -0.890682, -0.243965, 0.103865, -0.141901, -0.466490, -0.365339, 0.200104, 0.100875, 0.663143, 1.188568, },
{-0.196550, -0.323761, -0.334331, 0.379741, -0.794190, 0.151793, 0.042761, -0.197777, -0.431248, 1.321678, -0.222301, -0.293077, -0.746964, 0.570593, 0.338493, -0.240436, -0.261083, 0.469736, 0.680256, -0.515888, -0.078653, 1.418459, -0.300964, -0.676541, 0.163494, -0.241066, 0.521037, -0.130632, -0.189448, -0.811451, -0.143771, -0.584936, 0.774112, -0.696698, -0.625379, 0.008636, 0.139231, 0.494782, 0.154604, 0.248442, -0.944730, -0.620291, 0.221688, 0.051171, -0.764524, 0.086133, -0.205080, -0.054537, -0.255235, 0.493764, -0.233622, -0.439789, 0.512259, 0.907575, -0.321260, 0.644472, -0.363158, -0.431832, -0.236356, -0.206087, 0.025261, -0.600895, -1.474197, -0.027924, },
{0.148462, 0.439430, 0.014087, -0.016614, 0.167047, -0.458332, -0.424028, -0.869731, -0.080311, -0.161521, -0.039005, -0.001042, -0.017721, -0.048796, 0.058612, 0.491118, 0.612212, -0.938726, 0.205622, 0.188179, 0.034624, -0.343888, -0.558402, 0.101255, -0.963145, -0.025365, -0.261959, -0.202801, -0.070457, -0.009588, 0.166679, 0.004231, 0.448684, -0.599320, -0.347024, 0.182034, -0.414733, 0.714244, -0.237958, 0.666427, -0.428133, 0.334652, 0.138298, 0.492519, -0.319611, 0.573769, -0.080064, 0.224876, -0.401774, 0.680037, -0.288594, 1.107451, -0.408640, 0.600789, -0.247378, 0.372601, -0.509227, -0.244179, -0.128452, 0.645937, -0.000089, 0.156072, 0.337510, -0.036028, },
{0.713608, 0.790458, -1.271678, 0.870184, -0.126290, -0.368170, -0.741237, -0.115041, -0.200674, 0.500828, 0.329945, 0.143401, -0.356257, 0.566232, 0.964232, -0.518516, 0.262111, 0.306780, -0.325146, -1.179729, 0.072806, -0.520944, 0.427761, 0.482739, -0.199750, -0.655570, -0.456813, 0.329050, 0.476176, -0.114893, 0.187976, -0.901044, -0.030198, 0.310524, 0.018355, 0.161662, -0.352653, -0.195197, 0.026420, -0.700665, -0.482179, -0.914771, 0.266991, -0.189404, 0.769040, 0.509190, -0.178825, 1.012815, -0.064701, 0.746576, 0.162547, -0.305099, -0.897249, -0.241414, -0.046928, -0.312496, 0.282790, 0.780374, 0.797088, -0.728625, -1.120106, 0.019633, -0.085416, 0.169272, },
{-0.319185, -0.606114, 0.374992, -0.976691, 0.461405, -0.256909, 0.866563, 0.907541, 0.451231, -0.026016, -0.164884, -0.209643, -0.640106, 1.020316, -0.039836, 0.081245, -0.265864, -0.339490, 0.166245, 0.037457, -0.947769, 0.492749, 0.485785, -0.546037, -0.303983, -0.236542, 0.692591, -0.218939, -0.659314, -0.023463, -0.154325, 0.812916, -0.058990, 0.078790, 0.742933, -0.049647, 0.193040, 0.594346, -0.410441, -0.136752, 0.280990, 0.911049, -0.113732, 0.013284, 0.281583, -0.351524, -0.018142, -1.053622, 0.236554, 0.537859, 0.201978, -0.087970, 0.979094, 0.309459, -0.254965, 0.357456, 0.232961, -0.258407, -0.920706, 1.016207, 0.655914, -0.204349, 0.361114, -0.382460, },
{-0.727493, -0.307231, 0.236258, 0.273866, -0.474894, 0.726143, 0.189448, 0.884593, -0.067909, 0.336413, 0.060044, -0.829591, -0.480279, 0.335422, -0.457129, 0.201753, -0.607174, 0.667029, -0.177453, 0.543803, 0.653718, -0.298847, 0.923054, 0.149723, 0.676905, -0.530238, 0.220080, 0.276555, 0.829053, 1.288043, 0.163591, 0.128445, -0.380647, 0.084688, -0.455947, 0.064103, 0.188727, -0.206134, 0.394965, -0.372027, -0.274397, -0.140457, 0.415407, -0.675128, 0.213132, -0.605268, 0.154236, -0.665372, 0.727630, -0.236532, -0.340428, -0.609248, 0.793851, -0.253174, 0.696253, -0.913169, 0.235912, -0.077171, -0.456821, 0.227592, 0.021680, 0.256116, -0.112756, -0.047847, },
{-0.242086, -0.434414, 1.425596, -0.162042, 0.177304, 0.487450, 0.254059, -0.367195, -0.312540, -0.533282, -0.425284, -0.169050, 0.191073, -0.082302, -0.100173, 0.726271, 0.036608, -0.530004, 0.569724, 0.687196, 0.250571, 0.019339, 0.107934, 0.166514, -0.299730, 1.684518, -0.133678, -0.558188, -0.699811, 0.139377, 0.115296, 0.529540, -0.092367, 0.057470, 0.087144, 0.156195, 0.097367, 0.424452, 0.679277, 0.268939, 0.307194, -0.240252, 0.093897, -0.101704, -1.341558, -0.120410, 0.040381, -0.415716, -0.050674, -0.193251, -0.706079, 0.376018, -0.588971, 0.063215, 0.536196, 0.374963, -0.627916, 0.306556, 0.059042, 0.941510, 0.537355, -0.491363, -0.404618, 0.343309, },
{-0.152451, -0.086294, 0.376945, 0.256381, -0.273961, 0.352304, -0.218986, -0.606768, -0.000825, 0.051997, 0.190659, -0.104125, 0.176375, 0.596243, 0.005994, -0.341164, -0.159751, 0.224846, 0.740194, -0.012141, 0.338168, 0.369072, 0.039390, -0.109218, 0.512906, -0.199365, 0.693708, 0.016186, 0.036580, -0.344774, -0.145010, -1.067184, 0.204626, -0.254241, -0.424475, -0.429177, -0.125384, 0.039570, -0.139675, -0.166248, -0.483867, -1.121774, 0.650755, 0.156314, -0.286022, -0.656161, -0.102170, -0.174083, -0.093306, -0.046343, -0.104188, -0.377174, -0.349693, 0.138272, -0.224203, 0.133145, -0.320303, -0.056325, 0.523065, -0.674153, 0.354282, 0.039147, -1.248397, 0.308982, },
{-0.045387, 0.493438, -0.070715, -0.022750, 0.016394, -0.431607, 0.356251, -0.553486, -1.214984, 0.122179, -0.412890, 0.038140, -0.243508, -0.300338, -0.234467, -0.026266, 0.083845, -0.207281, 0.105449, -0.178687, 0.012537, -0.541466, -1.321086, -0.108219, -0.300693, 0.188472, 0.053774, -0.663486, -0.268989, -0.103922, -0.287964, -0.129786, 0.606031, -0.306248, -0.472190, 0.579002, 0.078206, 0.145327, -0.600735, 0.048842, -0.084836, 0.516494, 0.198761, 0.361564, -0.209595, 0.814277, -0.261720, -0.098484, -0.704330, 0.616990, -0.074877, 0.887099, 0.747967, 0.355561, -0.748068, 0.876565, 0.348566, -1.039151, -0.079847, 0.141692, 0.385732, 0.134298, 0.444274, -0.195866, },
{-1.393237, 0.129125, 0.555425, -0.630086, 0.740830, 0.558729, 1.197142, -0.262678, -1.161725, -0.228041, 0.449723, -1.117369, -0.025910, 0.491511, -0.433683, 0.002589, 0.028154, -0.021478, -0.400070, 0.276171, 0.092111, -0.135095, 0.072007, 0.020789, 0.675410, 0.434292, -0.445936, -0.344723, -0.168407, 0.907577, 0.022900, 0.376399, 0.020250, -0.115455, -0.141217, 0.133629, 0.136110, 0.145874, 0.210681, -0.005574, 0.600119, 0.256021, 0.674469, -0.358881, -0.263635, 0.143374, 0.900818, -0.550121, 0.925822, -0.480507, -0.355733, -0.574766, 0.329234, 0.266573, -0.066684, 0.351429, 0.156337, 0.126389, 0.276716, 0.486001, 0.330105, 0.359982, -0.581659, -0.636137, },
{0.188729, -0.187220, -0.196056, 0.264383, -0.215672, 0.030517, 0.028444, 0.459192, -0.039543, 0.172629, -0.177065, 0.133725, -0.239339, 0.101685, -0.894128, 0.237524, -0.026068, -0.394513, -0.132935, -0.053115, 0.045607, -0.940466, 0.160455, -0.257238, -0.048033, -0.426228, 0.118833, 0.567886, 0.828417, 0.663406, -0.197357, -0.023114, 0.030160, -0.236455, 0.141858, 0.950801, 0.787766, -0.097004, 0.078897, -0.022657, 0.480416, 0.676419, 0.248398, -0.500560, 0.618593, 0.498443, 0.136557, -0.503012, 0.091646, -0.365491, -0.499577, -0.256138, 0.600932, -0.305930, -0.118046, -0.571144, 0.970298, -0.485977, 0.122539, -0.239550, -0.310551, 0.639514, 0.648843, -0.634947, },
{0.257761, 0.016282, 0.105994, -0.485343, 0.716388, 0.101093, -0.022106, 0.369969, 0.598332, -0.242012, 0.573076, 0.175204, 0.222490, 0.341161, 0.316683, 0.267205, -0.218306, -0.036509, -0.307060, -0.212213, -0.040580, 0.256377, -0.865770, 0.353821, -0.129812, -0.037122, -0.223185, -0.661816, 0.352246, -0.593046, -0.156967, 0.240125, -0.427808, 0.827015, 0.295712, -0.334734, 0.092734, 0.032252, -0.547212, -0.807562, -0.012136, -0.020602, -0.575395, 1.178667, 0.197805, -0.084982, -1.429817, 0.352580, -0.091786, 0.407671, 0.404210, 0.257425, -0.019792, 0.047635, -0.230863, -0.182184, -0.442139, 0.482921, -0.324041, 0.062857, -0.180222, 0.805073, 0.397536, -0.043881, },
},
};

const float W1[HIDDEN_LAYER_SIZE][AC_SPACE_SIZE] = {
{0.057965, 0.339814, 0.520719, 0.018489, -0.088723, },
{0.638535, 0.204182, 0.205225, 0.469974, 0.301936, },
{-0.269574, -0.349328, 0.122790, 0.023118, 0.031464, },
{-0.362792, -0.102350, -0.138720, -0.031622, 0.291727, },
{0.010800, 0.091272, 0.140151, 0.746250, -0.083601, },
{0.002265, 0.023858, -0.185418, 0.796734, 0.200639, },
{-0.575032, -0.260602, -0.293528, 0.012596, 0.316854, },
{0.047193, 0.003454, -0.227134, 0.063719, 0.365724, },
{-0.400374, -0.037969, -0.328267, -0.721983, -0.172351, },
{0.324254, 0.137181, -0.108540, -0.079071, -0.099709, },
{0.720242, -0.167146, -0.239690, -0.542879, -0.069659, },
{0.052207, -0.323120, 0.073525, -0.060040, -0.369006, },
{-0.082470, -0.236530, 0.256353, 0.505253, -0.052083, },
{0.773540, 0.026339, 0.028209, -0.150926, -0.120951, },
{0.185666, -0.003963, -0.281529, 0.474373, 0.386383, },
{0.174097, 0.199584, -0.277525, -0.514113, 0.179735, },
{-0.171300, 0.146402, -0.375512, 0.376189, -0.147722, },
{-0.373553, -0.160847, 0.434346, -0.239301, 0.292212, },
{-0.042942, -0.031986, -0.265164, -0.095411, 0.086617, },
{0.003660, -0.193164, 0.180472, -0.230818, -0.190881, },
{-0.349914, -0.313420, -0.166775, 0.174054, -0.012835, },
{-0.037001, -0.146421, 0.059764, 0.022426, 0.493668, },
{0.115262, -0.188593, -0.009037, 0.346096, -0.098322, },
{0.263612, 0.069358, -0.321820, 0.530197, -0.013702, },
{-0.380465, -0.208895, 0.676731, 0.054129, -0.136279, },
{0.448438, -0.429086, -0.266180, 0.238811, 0.095939, },
{0.004606, -0.236363, -0.225311, -0.134669, -0.106478, },
{-0.286643, 0.300620, 0.106644, 0.210281, -0.017712, },
{-0.571576, 0.330942, 0.087048, 0.039282, 0.166840, },
{0.054300, -0.234035, -0.411026, 0.046013, -0.173529, },
{-0.573591, -0.128852, -0.109599, 0.256207, -0.003350, },
{0.360194, -0.227074, 0.246806, -0.447105, -0.064142, },
{-0.072576, -0.187440, -0.136487, -0.350097, -0.137769, },
{0.108567, 0.337228, -0.383488, 0.299152, 0.022291, },
{0.068334, 0.070092, 0.250709, -0.278663, -0.365586, },
{0.076055, 0.083077, -0.363509, -0.074849, 0.035131, },
{-0.275652, -0.384049, -0.184135, -0.248702, -0.336266, },
{-0.253821, -0.223870, -0.199388, 0.173379, -0.192334, },
{0.296550, -0.068130, -0.501602, 0.141569, 0.233262, },
{-0.014627, -0.031573, 0.155852, 0.207501, 0.311567, },
{0.115166, 0.038817, 0.438274, 0.364008, 0.180869, },
{0.139306, 0.356257, 0.519214, 0.527766, 0.312334, },
{0.105827, -0.148780, -0.059795, 0.069177, 0.361640, },
{-0.420328, 0.276968, -0.311238, 0.198344, 0.083190, },
{-0.542740, 0.081947, 0.228674, -0.180027, -0.289306, },
{0.336017, 0.131836, 0.047385, -0.407973, 0.517491, },
{0.455508, -0.428363, 0.073855, -0.162967, -0.090460, },
{0.227690, 0.415136, -0.055087, 0.172092, 0.206619, },
{0.100897, 0.110907, 0.558818, -0.070717, 0.055579, },
{0.713984, -0.248007, -0.189455, 0.055611, -0.119571, },
{-0.412839, 0.580299, 0.624223, -0.180818, -0.127459, },
{0.002482, 0.101016, -0.063930, 0.340396, 0.172662, },
{0.574825, 0.248075, -0.066235, 0.007890, -0.239308, },
{0.070754, -0.074529, -0.114924, -0.026879, 0.247990, },
{0.558604, -0.099163, 0.252562, 0.502026, 0.177329, },
{-0.072764, -0.153638, -0.130696, 0.107533, -0.041613, },
{0.403795, 0.337066, -0.083011, 0.110364, 0.120811, },
{0.044471, 0.063079, -0.395526, 0.181426, 0.002999, },
{-0.560976, 0.203650, 0.256549, 0.004134, 0.075844, },
{-0.163470, -0.490636, -0.008324, 0.020327, -0.100520, },
{-0.125480, 0.083261, -0.181050, 0.415736, 0.143282, },
{0.293252, -0.097197, 0.188906, -0.303824, -0.153192, },
{0.525878, 0.020981, -0.223486, -0.320983, -0.266361, },
{-0.129874, 0.362442, 0.092305, 0.232559, -0.107535, },
};

const float b0[HIDDEN_LAYER_SIZE] = {-0.269519, -0.126089, 0.035464, -0.373677, -0.140751, 0.103619, 0.629286, -0.015659, 0.370993, -0.155564, 0.122025, -0.060093, -0.013828, -0.117237, -0.072143, 0.310504, 0.027859, 0.104769, 0.044651, -0.318771, -0.124188, 0.977479, -0.234555, -0.407342, -0.598747, -0.220708, 0.547368, -0.180559, 0.025925, 0.271569, -0.240854, -0.467395, -0.332129, 0.610492, 0.032830, -0.252772, 0.226953, -0.003646, 0.543370, -0.129325, -0.049212, 0.528820, 0.162103, 0.051984, 0.256169, 0.046097, -0.107194, 0.150381, 0.197687, 0.522661, -0.099512, 0.257188, -0.485571, 0.089373, -0.179794, -0.038139, 0.074211, 0.497649, -0.011490, -0.135165, 0.302478, 0.432729, 0.008247, -0.087694, };

const float b_hidden[NUM_HIDDEN_LAYER - 1][HIDDEN_LAYER_SIZE] = {
{0.019601, -0.111566, -0.265059, 0.181184, 0.231203, 0.733097, 0.166883, 0.459232, -0.150166, 0.725197, -0.002720, 0.022034, -0.095441, 0.339338, -0.189487, -0.220009, 0.320294, 0.304970, -0.281242, 0.071914, 0.103754, -0.104673, 0.445762, 0.909838, 0.403708, -0.344229, -0.333980, 0.344602, 0.368157, 0.728418, -0.167737, -0.265172, -0.640079, -0.076457, -0.423933, 0.364772, -0.230615, -0.514434, 0.413929, 0.262402, 0.845604, 0.142616, 0.316985, -0.176821, -0.122800, -0.160041, -0.681940, 0.433430, 0.349915, -0.572043, -0.471787, 0.246012, 0.695698, -0.088728, 0.548912, -0.509527, 0.204199, 0.564678, 0.027068, 0.154206, -0.113669, 0.532144, -0.130464, 0.408745, },
};

const float b1[AC_SPACE_SIZE] = {-0.112779, 0.544958, 0.392413, 0.225110, 0.193478, };

const float ob_mean[OB_SPACE_SIZE] = {0.005630, 0.176672, -0.101858, 0.005016, 0.005499, -0.011537, 0.060823, -0.032723, -0.113164, 0.305241, -0.224945, -0.416031, 0.577148, };

const float ob_std[OB_SPACE_SIZE] = {0.126953, 0.175891, 0.156175, 0.478351, 0.941301, 0.100000, 0.817021, 0.376564, 0.556415, 1.061128, 0.642021, 0.786873, 0.623784, };

#endif
